,portfolio,benchmark,beta,hedged
2019-02-01,0.0049141434977334,0.0009714933376510082,0.8698484761408061,0.0040690914983967244
2019-03-01,0.0162936884549624,0.006831913982587201,0.8675763259560695,0.010366481622701498
2019-04-01,0.0050388625011151,0.019950289661950782,0.8699547134650106,-0.012316986025291257
2019-05-01,-0.0597462821101636,-0.07527519365479407,0.8672950844655078,0.005539523328828483
2019-06-01,0.0630077914895813,0.05697394789579158,0.8699728957406774,0.013442001056901028
2019-07-01,-0.0167336610902572,-0.016921676810192743,0.8713059107591452,-0.001989704065580307
2019-08-01,-0.0382454982477786,-0.05079989585442757,0.8715059848140829,0.006026915017287145
2019-09-01,0.023065622864019,0.016935377363282544,0.8696484523870127,0.008337798149450288
2019-10-01,0.0642183710057268,0.04093906093906097,0.873931264193559,0.028440445724356098
2019-11-01,-0.0141510446324844,-0.0018522428453521256,0.8822174695496325,-0.012516963636466436
2019-12-01,0.0712776233952609,0.07173693572424411,0.8826204871881675,0.007961134236942308
2020-01-01,-0.0544317652623,-0.04693807977320452,0.8877823052128675,-0.012760968598979024
2020-02-01,-0.0566279680170033,-0.05348570137620723,0.8941315070841931,-0.008804717238040036
2020-03-01,-0.1318304423201703,-0.15607844697271056,0.8978800775622274,0.008309285753479057
2020-04-01,0.1321030695167276,0.08998562304084468,0.8930548408586807,0.05174097325241682
2020-05-01,0.0230725737553523,0.005849028045062266,0.9025487622709275,0.01779354073279341
2020-06-01,0.0746941680617252,0.06959746332025585,0.9027498133729773,0.0118650710381316
2020-07-01,0.0700905873247553,0.08423274042809781,0.9068584734749476,-0.006296587076480981
2020-08-01,0.0139022055297784,0.02092833574315045,0.9058890312679774,-0.005056544262635144
2020-09-01,-0.034734751309477,-0.017703132092600993,0.9069469234108648,-0.018678950123356384
2020-10-01,-0.0015018774457904,0.019833641404805924,0.9069223030031366,-0.019489449185575353
2020-11-01,0.1291416128023795,0.0920830841172311,0.9029724553649658,0.04599312423946467
2020-12-01,0.1016884129288699,0.0715228161019692,0.9265992106243488,0.035415427987154774
2021-01-01,0.0029849717807841,0.02966869569257935,0.9434629248414713,-0.025006342633568376
2021-02-01,-0.0043654475610622,0.007288070579209771,0.9367822311656403,-0.011192782579146989
2021-03-01,-0.0103260257166878,-0.017046727297164055,0.9363246792488674,0.005635245752072247
2021-04-01,0.0396628762166303,0.023685270010558757,0.961976070579797,0.016878213241251477
2021-05-01,0.0367162205075586,0.021222757325932706,0.9632692716870408,0.016272990515016593
2021-06-01,0.0151098326645352,-0.001140814265264689,0.9667357525115253,0.01621269860174174
2021-07-01,-0.0748711853276591,-0.07044753535471115,0.9637192589104225,-0.006979538763551077
2021-08-01,0.0115318122572963,0.02415871028329941,0.9728343900957668,-0.011970611926657613
2021-09-01,-0.0332999626641572,-0.04246295857626459,0.9703895354109137,0.007905647980837066
2021-10-01,-0.007348868837893,0.009296943579921946,0.9689103564818484,-0.016356773756106804
2021-11-01,-0.0109750996781254,-0.04137576596165249,0.9674377148787144,0.029053376795172177
2021-12-01,0.0212059797114084,0.016157767110407173,0.9593830667575108,0.005704491549072323
2022-01-01,-0.0260489646662917,-0.019301791381563405,0.9586047566293335,-0.007546175636457944
2022-02-01,-0.0071029078380956,-0.030557095917168153,0.9575261706699767,0.022156311202265598
2022-03-01,-0.004899869869099,-0.025202550989917305,0.9546056818306374,0.019158628502502415
2022-04-01,-0.0505274386542096,-0.05745364734320668,0.9510674782502434,0.004114856840772778
2022-05-01,0.0153847014302734,0.0013752218474432087,0.9532288744932343,0.014073800256456603
2022-06-01,-0.0412655609144177,-0.07145044401347367,0.9540280511897048,0.02690016694439569
2022-07-01,-0.0057798717091492,-0.0068853867908501565,0.9431173343003612,0.0007138559266643175
2022-08-01,-0.011539756474009,0.00033206544708086483,0.9442635167632287,-0.011853313760865132
2022-09-01,-0.113989824409639,-0.11902103388960983,0.9443265324691702,-0.0015951041857681647
2022-10-01,-0.0528897855264154,-0.03154865892508474,0.9496020236052405,-0.0229311151691234
2022-11-01,0.1744779199618948,0.14635210337672144,0.9552800313659183,0.034670678057712206
2022-12-01,-0.0119347273280218,-0.016363430663690837,0.9804955276711597,0.00410954325508418
2023-01-01,0.0496772330037625,0.0785461845709865,0.9790118828056207,-0.027220415040276787
2023-02-01,-0.0622273825330459,-0.06542898691226373,0.9815237679137302,0.0019927232318573407
2023-03-01,0.0326972761958011,0.02725075466022142,0.9829688929916289,0.005910632054256779
2023-04-01,0.0099340755467749,-0.013359857817990872,0.9845837026511153,0.023087973824104803
2023-05-01,-0.0399342219450096,-0.01895501765518648,0.983467688645143,-0.021292574543435472
2023-06-01,0.0384226054125284,0.0322890259042492,0.9884404304050337,0.006506826750373035
2023-07-01,0.0599702915473273,0.058040586974976716,0.989450367899157,0.002542011411853569
2023-08-01,-0.0744758397316332,-0.06359667975279637,0.9879673675333599,-0.01164439545240084
2023-09-01,-0.0067415310184482,-0.028102781716360936,0.9930517683452483,0.02116598606040454
2023-10-01,-0.044246195832301,-0.03944247360356001,0.9898396914004675,-0.005204469932482074
2023-11-01,0.0719308017145792,0.07856206293706292,1.0014946998626355,-0.006748687927164099
2023-12-01,0.0488496241343849,0.0371188329449903,0.9959515874289058,0.011881063539313445
2024-01-01,-0.0472738635085512,-0.04682829624709406,0.9967813270118964,-0.0005962922336665774
2024-02-01,0.0511998718420421,0.046259479401516757,1.0064152421426025,0.004643626678773882
2024-03-01,0.0262699642579016,0.021803436049131264,1.0065107727485156,0.004324570991517649
2024-04-01,-0.0060742584873359,0.002636119631901801,1.006353940165338,-0.008727127865647478
2024-05-01,0.0043044481481434,0.002877766623643474,1.0082968432717914,0.0014028051458507638
2024-06-01,0.0291027078802256,0.0355494966442953,1.0136626318304842,-0.00693248844847974
2024-07-01,0.0027408328283817,-0.0013624856156502219,1.0110834327250258,0.004118419461691797
2024-08-01,0.0282079455125785,0.01396609419508299,1.0106852563221773,0.014092620021201374
2024-09-01,0.0732935205775231,0.0644865081096806,1.0143355567885175,0.007882562468742985
2024-10-01,-0.0575603334648076,-0.04383994533885638,1.0156011939739127,-0.013036432634913997
2024-11-01,-0.0459347948247917,-0.03657817636129779,1.0160258895138725,-0.008770420650508814
2024-12-01,-0.0116483635691977,-0.0028649044568269666,1.0183952791793485,-0.00873075839506524
2025-01-01,0.0204774167353113,0.016634432997359117,1.0208624314395571,0.0034959490200088712
2025-02-01,-0.0221042736451869,0.003548661477816406,1.017981076426721,-0.025716743876248484
2025-03-01,0.0376523759092817,0.021389838231943514,1.0158866088377052,0.015922725684245506
